<?xml version="1.0"?>
<opencv_storage>
<cascade>
  <stageType>BOOST</stageType>
  <featureType>HAAR</featureType>
  <height>24</height>
  <width>36</width>
  <stageParams>
    <boostType>GAB</boostType>
    <minHitRate>9.9500000476837158e-01</minHitRate>
    <maxFalseAlarm>5.0000000000000000e-01</maxFalseAlarm>
    <weightTrimRate>9.4999998807907104e-01</weightTrimRate>
    <maxDepth>1</maxDepth>
    <maxWeakCount>100</maxWeakCount></stageParams>
  <featureParams>
    <maxCatCount>0</maxCatCount>
    <featSize>1</featSize>
    <mode>BASIC</mode></featureParams>
  <stageNum>3</stageNum>
  <stages>
    <!-- stage 0 -->
    <_>
      <maxWeakCount>2</maxWeakCount>
      <stageThreshold>-2.8323985636234283e-02</stageThreshold>
      <weakClassifiers>
        <_>
          <internalNodes>
            0 -1 0 6.0674902051687241e-03</internalNodes>
          <leafValues>
            -9.9170124530792236e-01 9.5918369293212891e-01</leafValues></_>
        <_>
          <internalNodes>
            0 -1 5 -8.2514062523841858e-02</internalNodes>
          <leafValues>
            9.8208022117614746e-01 -9.8750764131546021e-01</leafValues></_></weakClassifiers></_>
    <!-- stage 1 -->
    <_>
      <maxWeakCount>3</maxWeakCount>
      <stageThreshold>-8.8731312751770020e-01</stageThreshold>
      <weakClassifiers>
        <_>
          <internalNodes>
            0 -1 4 -4.7775648534297943e-02</internalNodes>
          <leafValues>
            9.5744681358337402e-01 -9.7530865669250488e-01</leafValues></_>
        <_>
          <internalNodes>
            0 -1 2 8.3023682236671448e-02</internalNodes>
          <leafValues>
            -8.4166240692138672e-01 9.3792551755905151e-01</leafValues></_>
        <_>
          <internalNodes>
            0 -1 7 9.3413457274436951e-02</internalNodes>
          <leafValues>
            -8.5868483781814575e-01 9.2965793609619141e-01</leafValues></_></weakClassifiers></_>
    <!-- stage 2 -->
    <_>
      <maxWeakCount>3</maxWeakCount>
      <stageThreshold>-1.0784242153167725e+00</stageThreshold>
      <weakClassifiers>
        <_>
          <internalNodes>
            0 -1 1 1.3546193258662242e-05</internalNodes>
          <leafValues>
            -9.8760330677032471e-01 9.7916668653488159e-01</leafValues></_>
        <_>
          <internalNodes>
            0 -1 6 -2.9275327920913696e-02</internalNodes>
          <leafValues>
            8.4508889913558960e-01 -9.5817768573760986e-01</leafValues></_>
        <_>
          <internalNodes>
            0 -1 3 5.2963057532906532e-03</internalNodes>
          <leafValues>
            -9.3590974807739258e-01 8.6907851696014404e-01</leafValues></_></weakClassifiers></_></stages>
  <features>
    <_>
      <rects>
        <_>
          0 12 12 3 -1.</_>
        <_>
          0 13 12 1 3.</_></rects>
      <tilted>0</tilted></_>
    <_>
      <rects>
        <_>
          0 14 1 2 -1.</_>
        <_>
          0 15 1 1 2.</_></rects>
      <tilted>0</tilted></_>
    <_>
      <rects>
        <_>
          0 14 36 6 -1.</_>
        <_>
          0 16 36 2 3.</_></rects>
      <tilted>0</tilted></_>
    <_>
      <rects>
        <_>
          2 11 1 12 -1.</_>
        <_>
          2 15 1 4 3.</_></rects>
      <tilted>0</tilted></_>
    <_>
      <rects>
        <_>
          2 13 28 3 -1.</_>
        <_>
          2 14 28 1 3.</_></rects>
      <tilted>0</tilted></_>
    <_>
      <rects>
        <_>
          6 11 29 9 -1.</_>
        <_>
          6 14 29 3 3.</_></rects>
      <tilted>0</tilted></_>
    <_>
      <rects>
        <_>
          8 11 18 6 -1.</_>
        <_>
          8 13 18 2 3.</_></rects>
      <tilted>0</tilted></_>
    <_>
      <rects>
        <_>
          11 14 18 9 -1.</_>
        <_>
          17 14 6 9 3.</_></rects>
      <tilted>0</tilted></_></features></cascade>
</opencv_storage>
